digraph Tree {
node [shape=box, style="filled, rounded", color="black", fontname=helvetica] ;
edge [fontname=helvetica] ;
0 [label="Dia <= 146.1\nmse = 70578691.076\nsamples = 54\nvalue = 8178.13", fillcolor="#f7d8c1"] ;
1 [label="Dia <= 73.65\nmse = 15409491.517\nsamples = 44\nvalue = 5105.273", fillcolor="#fbebe0"] ;
0 -> 1 [labeldistance=2.5, labelangle=45, headlabel="True"] ;
2 [label="mse = 1452138.81\nsamples = 17\nvalue = 2054.118", fillcolor="#ffffff"] ;
1 -> 2 ;
3 [label="Len <= 31.85\nmse = 14645271.344\nsamples = 27\nvalue = 7026.37", fillcolor="#f8dfcd"] ;
1 -> 3 ;
4 [label="mse = 2163712.81\nsamples = 11\nvalue = 4635.091", fillcolor="#fceee5"] ;
3 -> 4 ;
5 [label="mse = 16592317.109\nsamples = 16\nvalue = 8670.375", fillcolor="#f6d5bc"] ;
3 -> 5 ;
6 [label="mse = 88970568.01\nsamples = 10\nvalue = 21698.7", fillcolor="#e58139"] ;
0 -> 6 [labeldistance=2.5, labelangle=-45, headlabel="False"] ;
}